SVM-light Version V6.20
0 # kernel type
3 # kernel parameter -d 
1 # kernel parameter -g 
1 # kernel parameter -s 
1 # kernel parameter -r 
empty# kernel parameter -u 
9 # highest feature index 
20 # number of training documents 
2 # number of support vectors plus 1 
0 # threshold b, each following line is a SV (starting with alpha*y)
1 1:-0.061591681 2:-0.19040766 3:-0.064325012 4:-0.02758253 5:-0.044249326 6:0.043923825 7:-0.31537712 8:-1.0164368 #
